digraph Tree {
node [shape=box, style="filled, rounded", color="black", fontname=helvetica] ;
edge [fontname=helvetica] ;
0 [label="Title <= 1.5\ngini = 0.473\nsamples = 891\nvalue = [549, 342]", fillcolor="#e5813960"] ;
1 [label="Pclass <= 1.5\ngini = 0.264\nsamples = 517\nvalue = [436, 81]", fillcolor="#e58139d0"] ;
0 -> 1 [labeldistance=2.5, labelangle=45, headlabel="True"] ;
2 [label="Age <= 2.5\ngini = 0.452\nsamples = 107\nvalue = [70, 37]", fillcolor="#e5813978"] ;
1 -> 2 ;
3 [label="Fare <= 1.0\ngini = 0.483\nsamples = 81\nvalue = [48, 33]", fillcolor="#e5813950"] ;
2 -> 3 ;
4 [label="gini = 0.0\nsamples = 5\nvalue = [5, 0]", fillcolor="#e58139ff"] ;
3 -> 4 ;
5 [label="Fare <= 2.5\ngini = 0.491\nsamples = 76\nvalue = [43, 33]", fillcolor="#e581393b"] ;
3 -> 5 ;
6 [label="gini = 0.49\nsamples = 28\nvalue = [12, 16]", fillcolor="#399de540"] ;
5 -> 6 ;
7 [label="gini = 0.457\nsamples = 48\nvalue = [31, 17]", fillcolor="#e5813973"] ;
5 -> 7 ;
8 [label="Age <= 75.5\ngini = 0.26\nsamples = 26\nvalue = [22, 4]", fillcolor="#e58139d1"] ;
2 -> 8 ;
9 [label="Embarked <= 0.5\ngini = 0.211\nsamples = 25\nvalue = [22, 3]", fillcolor="#e58139dc"] ;
8 -> 9 ;
10 [label="gini = 0.133\nsamples = 14\nvalue = [13, 1]", fillcolor="#e58139eb"] ;
9 -> 10 ;
11 [label="gini = 0.298\nsamples = 11\nvalue = [9, 2]", fillcolor="#e58139c6"] ;
9 -> 11 ;
12 [label="gini = 0.0\nsamples = 1\nvalue = [0, 1]", fillcolor="#399de5ff"] ;
8 -> 12 ;
13 [label="Age*Class <= 3.5\ngini = 0.192\nsamples = 410\nvalue = [366, 44]", fillcolor="#e58139e0"] ;
1 -> 13 ;
14 [label="Fare <= 2.5\ngini = 0.215\nsamples = 311\nvalue = [273, 38]", fillcolor="#e58139dc"] ;
13 -> 14 ;
15 [label="Embarked <= 0.5\ngini = 0.202\nsamples = 289\nvalue = [256, 33]", fillcolor="#e58139de"] ;
14 -> 15 ;
16 [label="gini = 0.188\nsamples = 219\nvalue = [196, 23]", fillcolor="#e58139e1"] ;
15 -> 16 ;
17 [label="gini = 0.245\nsamples = 70\nvalue = [60, 10]", fillcolor="#e58139d4"] ;
15 -> 17 ;
18 [label="IsAlone <= 0.5\ngini = 0.351\nsamples = 22\nvalue = [17, 5]", fillcolor="#e58139b4"] ;
14 -> 18 ;
19 [label="gini = 0.0\nsamples = 13\nvalue = [13, 0]", fillcolor="#e58139ff"] ;
18 -> 19 ;
20 [label="gini = 0.494\nsamples = 9\nvalue = [4, 5]", fillcolor="#399de533"] ;
18 -> 20 ;
21 [label="Fare <= 0.5\ngini = 0.114\nsamples = 99\nvalue = [93, 6]", fillcolor="#e58139ef"] ;
13 -> 21 ;
22 [label="gini = 0.0\nsamples = 32\nvalue = [32, 0]", fillcolor="#e58139ff"] ;
21 -> 22 ;
23 [label="Fare <= 1.5\ngini = 0.163\nsamples = 67\nvalue = [61, 6]", fillcolor="#e58139e6"] ;
21 -> 23 ;
24 [label="gini = 0.24\nsamples = 43\nvalue = [37, 6]", fillcolor="#e58139d6"] ;
23 -> 24 ;
25 [label="gini = 0.0\nsamples = 24\nvalue = [24, 0]", fillcolor="#e58139ff"] ;
23 -> 25 ;
26 [label="Pclass <= 2.5\ngini = 0.422\nsamples = 374\nvalue = [113, 261]", fillcolor="#399de591"] ;
0 -> 26 [labeldistance=2.5, labelangle=-45, headlabel="False"] ;
27 [label="Title <= 4.5\ngini = 0.209\nsamples = 202\nvalue = [24, 178]", fillcolor="#399de5dd"] ;
26 -> 27 ;
28 [label="Fare <= 2.5\ngini = 0.096\nsamples = 179\nvalue = [9, 170]", fillcolor="#399de5f2"] ;
27 -> 28 ;
29 [label="Age <= 2.5\ngini = 0.16\nsamples = 80\nvalue = [7, 73]", fillcolor="#399de5e7"] ;
28 -> 29 ;
30 [label="gini = 0.129\nsamples = 72\nvalue = [5, 67]", fillcolor="#399de5ec"] ;
29 -> 30 ;
31 [label="gini = 0.375\nsamples = 8\nvalue = [2, 6]", fillcolor="#399de5aa"] ;
29 -> 31 ;
32 [label="Age*Class <= 1.5\ngini = 0.04\nsamples = 99\nvalue = [2, 97]", fillcolor="#399de5fa"] ;
28 -> 32 ;
33 [label="gini = 0.087\nsamples = 44\nvalue = [2, 42]", fillcolor="#399de5f3"] ;
32 -> 33 ;
34 [label="gini = 0.0\nsamples = 55\nvalue = [0, 55]", fillcolor="#399de5ff"] ;
32 -> 34 ;
35 [label="Pclass <= 1.5\ngini = 0.454\nsamples = 23\nvalue = [15, 8]", fillcolor="#e5813977"] ;
27 -> 35 ;
36 [label="Sex <= 0.5\ngini = 0.498\nsamples = 15\nvalue = [7, 8]", fillcolor="#399de520"] ;
35 -> 36 ;
37 [label="gini = 0.486\nsamples = 12\nvalue = [7, 5]", fillcolor="#e5813949"] ;
36 -> 37 ;
38 [label="gini = 0.0\nsamples = 3\nvalue = [0, 3]", fillcolor="#399de5ff"] ;
36 -> 38 ;
39 [label="gini = 0.0\nsamples = 8\nvalue = [8, 0]", fillcolor="#e58139ff"] ;
35 -> 39 ;
40 [label="Fare <= 2.5\ngini = 0.499\nsamples = 172\nvalue = [89, 83]", fillcolor="#e5813911"] ;
26 -> 40 ;
41 [label="Embarked <= 0.5\ngini = 0.495\nsamples = 146\nvalue = [66, 80]", fillcolor="#399de52d"] ;
40 -> 41 ;
42 [label="Title <= 2.5\ngini = 0.495\nsamples = 82\nvalue = [45, 37]", fillcolor="#e581392d"] ;
41 -> 42 ;
43 [label="gini = 0.473\nsamples = 47\nvalue = [29, 18]", fillcolor="#e5813961"] ;
42 -> 43 ;
44 [label="gini = 0.496\nsamples = 35\nvalue = [16, 19]", fillcolor="#399de528"] ;
42 -> 44 ;
45 [label="Fare <= 1.5\ngini = 0.441\nsamples = 64\nvalue = [21, 43]", fillcolor="#399de582"] ;
41 -> 45 ;
46 [label="gini = 0.327\nsamples = 34\nvalue = [7, 27]", fillcolor="#399de5bd"] ;
45 -> 46 ;
47 [label="gini = 0.498\nsamples = 30\nvalue = [14, 16]", fillcolor="#399de520"] ;
45 -> 47 ;
48 [label="Age*Class <= 4.5\ngini = 0.204\nsamples = 26\nvalue = [23, 3]", fillcolor="#e58139de"] ;
40 -> 48 ;
49 [label="Age*Class <= 1.5\ngini = 0.172\nsamples = 21\nvalue = [19, 2]", fillcolor="#e58139e4"] ;
48 -> 49 ;
50 [label="gini = 0.219\nsamples = 16\nvalue = [14, 2]", fillcolor="#e58139db"] ;
49 -> 50 ;
51 [label="gini = 0.0\nsamples = 5\nvalue = [5, 0]", fillcolor="#e58139ff"] ;
49 -> 51 ;
52 [label="gini = 0.32\nsamples = 5\nvalue = [4, 1]", fillcolor="#e58139bf"] ;
48 -> 52 ;
}